digraph Tree {
node [shape=box] ;
0 [label="Uniformity of cell size <= 2.5\nimpurity = 0.4557\nsamples = 524\nvalue = [340, 184]"] ;
1 [label="Normal Nucleoli <= 3.5\nimpurity = 0.0495\nsamples = 315\nvalue = [307, 8]"] ;
0 -> 1 [labeldistance=2.5, labelangle=45, headlabel="True"] ;
2 [label="Single Epithelial cell size <= 5.5\nimpurity = 0.0192\nsamples = 309\nvalue = [306, 3]"] ;
1 -> 2 ;
3 [label="Bare Nuclei <= 4.5\nimpurity = 0.0065\nsamples = 306\nvalue = [305, 1]"] ;
2 -> 3 ;
4 [label="impurity = 0.0\nsamples = 297\nvalue = [297, 0]"] ;
3 -> 4 ;
5 [label="Single Epithelial cell size <= 1.5\nimpurity = 0.1975\nsamples = 9\nvalue = [8, 1]"] ;
3 -> 5 ;
6 [label="impurity = 0.0\nsamples = 1\nvalue = [0, 1]"] ;
5 -> 6 ;
7 [label="impurity = 0.0\nsamples = 8\nvalue = [8, 0]"] ;
5 -> 7 ;
8 [label="Sample Code no. <= 1172935.5\nimpurity = 0.4444\nsamples = 3\nvalue = [1, 2]"] ;
2 -> 8 ;
9 [label="impurity = 0.0\nsamples = 2\nvalue = [0, 2]"] ;
8 -> 9 ;
10 [label="impurity = 0.0\nsamples = 1\nvalue = [1, 0]"] ;
8 -> 10 ;
11 [label="Bare Nuclei <= 3.0\nimpurity = 0.2778\nsamples = 6\nvalue = [1, 5]"] ;
1 -> 11 ;
12 [label="impurity = 0.0\nsamples = 1\nvalue = [1, 0]"] ;
11 -> 12 ;
13 [label="impurity = 0.0\nsamples = 5\nvalue = [0, 5]"] ;
11 -> 13 ;
14 [label="Bare Nuclei <= 1.5\nimpurity = 0.2659\nsamples = 209\nvalue = [33, 176]"] ;
0 -> 14 [labeldistance=2.5, labelangle=-45, headlabel="False"] ;
15 [label="Uniformity of cell size <= 6.5\nimpurity = 0.4628\nsamples = 33\nvalue = [21, 12]"] ;
14 -> 15 ;
16 [label="Marginal adhesion <= 3.5\nimpurity = 0.2688\nsamples = 25\nvalue = [21, 4]"] ;
15 -> 16 ;
17 [label="impurity = 0.0\nsamples = 18\nvalue = [18, 0]"] ;
16 -> 17 ;
18 [label="Uniformity of cell shape <= 3.0\nimpurity = 0.4898\nsamples = 7\nvalue = [3, 4]"] ;
16 -> 18 ;
19 [label="impurity = 0.0\nsamples = 1\nvalue = [1, 0]"] ;
18 -> 19 ;
20 [label="Normal Nucleoli <= 5.5\nimpurity = 0.4444\nsamples = 6\nvalue = [2, 4]"] ;
18 -> 20 ;
21 [label="impurity = 0.0\nsamples = 3\nvalue = [0, 3]"] ;
20 -> 21 ;
22 [label="Sample Code no. <= 1224731.5\nimpurity = 0.4444\nsamples = 3\nvalue = [2, 1]"] ;
20 -> 22 ;
23 [label="impurity = 0.0\nsamples = 2\nvalue = [2, 0]"] ;
22 -> 23 ;
24 [label="impurity = 0.0\nsamples = 1\nvalue = [0, 1]"] ;
22 -> 24 ;
25 [label="impurity = 0.0\nsamples = 8\nvalue = [0, 8]"] ;
15 -> 25 ;
26 [label="Uniformity of cell size <= 4.5\nimpurity = 0.1271\nsamples = 176\nvalue = [12, 164]"] ;
14 -> 26 ;
27 [label="Bare Nuclei <= 3.5\nimpurity = 0.3153\nsamples = 51\nvalue = [10, 41]"] ;
26 -> 27 ;
28 [label="Clump Thickness <= 4.0\nimpurity = 0.4938\nsamples = 9\nvalue = [5, 4]"] ;
27 -> 28 ;
29 [label="impurity = 0.0\nsamples = 4\nvalue = [4, 0]"] ;
28 -> 29 ;
30 [label="Bland Chromatin <= 5.0\nimpurity = 0.32\nsamples = 5\nvalue = [1, 4]"] ;
28 -> 30 ;
31 [label="impurity = 0.0\nsamples = 4\nvalue = [0, 4]"] ;
30 -> 31 ;
32 [label="impurity = 0.0\nsamples = 1\nvalue = [1, 0]"] ;
30 -> 32 ;
33 [label="Uniformity of cell shape <= 4.5\nimpurity = 0.2098\nsamples = 42\nvalue = [5, 37]"] ;
27 -> 33 ;
34 [label="Bare Nuclei <= 8.0\nimpurity = 0.3403\nsamples = 23\nvalue = [5, 18]"] ;
33 -> 34 ;
35 [label="Uniformity of cell shape <= 3.5\nimpurity = 0.48\nsamples = 5\nvalue = [3, 2]"] ;
34 -> 35 ;
36 [label="impurity = 0.0\nsamples = 2\nvalue = [0, 2]"] ;
35 -> 36 ;
37 [label="impurity = 0.0\nsamples = 3\nvalue = [3, 0]"] ;
35 -> 37 ;
38 [label="Bland Chromatin <= 3.5\nimpurity = 0.1975\nsamples = 18\nvalue = [2, 16]"] ;
34 -> 38 ;
39 [label="Clump Thickness <= 7.0\nimpurity = 0.4444\nsamples = 6\nvalue = [2, 4]"] ;
38 -> 39 ;
40 [label="Sample Code no. <= 1109917.5\nimpurity = 0.4444\nsamples = 3\nvalue = [2, 1]"] ;
39 -> 40 ;
41 [label="impurity = 0.0\nsamples = 2\nvalue = [2, 0]"] ;
40 -> 41 ;
42 [label="impurity = 0.0\nsamples = 1\nvalue = [0, 1]"] ;
40 -> 42 ;
43 [label="impurity = 0.0\nsamples = 3\nvalue = [0, 3]"] ;
39 -> 43 ;
44 [label="impurity = 0.0\nsamples = 12\nvalue = [0, 12]"] ;
38 -> 44 ;
45 [label="impurity = 0.0\nsamples = 19\nvalue = [0, 19]"] ;
33 -> 45 ;
46 [label="Marginal adhesion <= 1.5\nimpurity = 0.0315\nsamples = 125\nvalue = [2, 123]"] ;
26 -> 46 ;
47 [label="Normal Nucleoli <= 5.0\nimpurity = 0.375\nsamples = 4\nvalue = [1, 3]"] ;
46 -> 47 ;
48 [label="impurity = 0.0\nsamples = 3\nvalue = [0, 3]"] ;
47 -> 48 ;
49 [label="impurity = 0.0\nsamples = 1\nvalue = [1, 0]"] ;
47 -> 49 ;
50 [label="Sample Code no. <= 1290191.0\nimpurity = 0.0164\nsamples = 121\nvalue = [1, 120]"] ;
46 -> 50 ;
51 [label="impurity = 0.0\nsamples = 107\nvalue = [0, 107]"] ;
50 -> 51 ;
52 [label="Bland Chromatin <= 4.5\nimpurity = 0.1327\nsamples = 14\nvalue = [1, 13]"] ;
50 -> 52 ;
53 [label="impurity = 0.0\nsamples = 1\nvalue = [1, 0]"] ;
52 -> 53 ;
54 [label="impurity = 0.0\nsamples = 13\nvalue = [0, 13]"] ;
52 -> 54 ;
}